<?xml version="1.0"?>
<opencv_storage>
<opencv_ml_svm>
  <format>3</format>
  <svmType>C_SVC</svmType>
  <kernel>
    <type>LINEAR</type></kernel>
  <C>1.</C>
  <term_criteria><iterations>100</iterations></term_criteria>
  <var_count>2</var_count>
  <class_count>2</class_count>
  <class_labels type_id="opencv-matrix">
    <rows>2</rows>
    <cols>1</cols>
    <dt>i</dt>
    <data>
      0 1</data></class_labels>
  <sv_total>1</sv_total>
  <support_vectors>
    <_>
      -2.00000003e-01 -2.00000003e-01</_></support_vectors>
  <uncompressed_sv_total>6</uncompressed_sv_total>
  <uncompressed_support_vectors>
    <_>
      1. 2.</_>
    <_>
      2. 3.</_>
    <_>
      3. 3.</_>
    <_>
      6. 7.</_>
    <_>
      7. 8.</_>
    <_>
      8. 8.</_></uncompressed_support_vectors>
  <decision_functions>
    <_>
      <sv_count>1</sv_count>
      <rho>-1.8666666666666718e+00</rho>
      <alpha>
        1.</alpha>
      <index>
        0</index></_></decision_functions></opencv_ml_svm>
</opencv_storage>
